digraph Tree {
node [shape=box, style="filled, rounded", color="black", fontname=helvetica] ;
edge [fontname=helvetica] ;
0 [label="petal_length <= 2.6\ngini = 0.665\nsamples = 105\nvalue = [36, 32, 37]\nclass = Iris-virginica", fillcolor="#fdfcff"] ;
1 [label="gini = 0.0\nsamples = 36\nvalue = [36, 0, 0]\nclass = Iris-setosa", fillcolor="#e58139"] ;
0 -> 1 [labeldistance=2.5, labelangle=45, headlabel="True"] ;
2 [label="petal_width <= 1.65\ngini = 0.497\nsamples = 69\nvalue = [0, 32, 37]\nclass = Iris-virginica", fillcolor="#eee4fb"] ;
0 -> 2 [labeldistance=2.5, labelangle=-45, headlabel="False"] ;
3 [label="petal_length <= 5.0\ngini = 0.161\nsamples = 34\nvalue = [0, 31, 3]\nclass = Iris-versicolor", fillcolor="#4ce88d"] ;
2 -> 3 ;
4 [label="gini = 0.0\nsamples = 30\nvalue = [0, 30, 0]\nclass = Iris-versicolor", fillcolor="#39e581"] ;
3 -> 4 ;
5 [label="sepal_length <= 6.05\ngini = 0.375\nsamples = 4\nvalue = [0, 1, 3]\nclass = Iris-virginica", fillcolor="#ab7bee"] ;
3 -> 5 ;
6 [label="gini = 0.0\nsamples = 1\nvalue = [0, 1, 0]\nclass = Iris-versicolor", fillcolor="#39e581"] ;
5 -> 6 ;
7 [label="gini = 0.0\nsamples = 3\nvalue = [0, 0, 3]\nclass = Iris-virginica", fillcolor="#8139e5"] ;
5 -> 7 ;
8 [label="petal_length <= 4.85\ngini = 0.056\nsamples = 35\nvalue = [0, 1, 34]\nclass = Iris-virginica", fillcolor="#853fe6"] ;
2 -> 8 ;
9 [label="sepal_width <= 3.1\ngini = 0.375\nsamples = 4\nvalue = [0, 1, 3]\nclass = Iris-virginica", fillcolor="#ab7bee"] ;
8 -> 9 ;
10 [label="gini = 0.0\nsamples = 3\nvalue = [0, 0, 3]\nclass = Iris-virginica", fillcolor="#8139e5"] ;
9 -> 10 ;
11 [label="gini = 0.0\nsamples = 1\nvalue = [0, 1, 0]\nclass = Iris-versicolor", fillcolor="#39e581"] ;
9 -> 11 ;
12 [label="gini = 0.0\nsamples = 31\nvalue = [0, 0, 31]\nclass = Iris-virginica", fillcolor="#8139e5"] ;
8 -> 12 ;
}